<?xml version="1.0"?>
<opencv_storage>
<cascade>
  <stageType>BOOST</stageType>
  <featureType>HAAR</featureType>
  <height>46</height>
  <width>38</width>
  <stageParams>
    <boostType>GAB</boostType>
    <minHitRate>9.9500000476837158e-01</minHitRate>
    <maxFalseAlarm>5.0000000000000000e-01</maxFalseAlarm>
    <weightTrimRate>9.4999998807907104e-01</weightTrimRate>
    <maxDepth>1</maxDepth>
    <maxWeakCount>100</maxWeakCount></stageParams>
  <featureParams>
    <maxCatCount>0</maxCatCount>
    <featSize>1</featSize>
    <mode>BASIC</mode></featureParams>
  <stageNum>5</stageNum>
  <stages>
    <!-- stage 0 -->
    <_>
      <maxWeakCount>2</maxWeakCount>
      <stageThreshold>-2.0334130525588989e-01</stageThreshold>
      <weakClassifiers>
        <_>
          <internalNodes>
            0 -1 0 -2.8339904546737671e-01</internalNodes>
          <leafValues>
            9.2592591047286987e-01 -9.9201595783233643e-01</leafValues></_>
        <_>
          <internalNodes>
            0 -1 4 3.1695447862148285e-02</internalNodes>
          <leafValues>
            -1. 7.8867465257644653e-01</leafValues></_></weakClassifiers></_>
    <!-- stage 1 -->
    <_>
      <maxWeakCount>2</maxWeakCount>
      <stageThreshold>-2.8189465403556824e-01</stageThreshold>
      <weakClassifiers>
        <_>
          <internalNodes>
            0 -1 10 1.2023156136274338e-01</internalNodes>
          <leafValues>
            -9.8799997568130493e-01 7.8571426868438721e-01</leafValues></_>
        <_>
          <internalNodes>
            0 -1 8 -3.5377513617277145e-02</internalNodes>
          <leafValues>
            7.0610535144805908e-01 -1.</leafValues></_></weakClassifiers></_>
    <!-- stage 2 -->
    <_>
      <maxWeakCount>2</maxWeakCount>
      <stageThreshold>-4.1836690902709961e-01</stageThreshold>
      <weakClassifiers>
        <_>
          <internalNodes>
            0 -1 7 1.6086677089333534e-02</internalNodes>
          <leafValues>
            -9.9191921949386597e-01 5.7575756311416626e-01</leafValues></_>
        <_>
          <internalNodes>
            0 -1 3 -1.2484729290008545e-02</internalNodes>
          <leafValues>
            6.2758630514144897e-01 -9.9412447214126587e-01</leafValues></_></weakClassifiers></_>
    <!-- stage 3 -->
    <_>
      <maxWeakCount>2</maxWeakCount>
      <stageThreshold>-5.8951359987258911e-01</stageThreshold>
      <weakClassifiers>
        <_>
          <internalNodes>
            0 -1 1 -1.7849615216255188e-01</internalNodes>
          <leafValues>
            6.1290323734283447e-01 -9.8792755603790283e-01</leafValues></_>
        <_>
          <internalNodes>
            0 -1 9 1.1671678721904755e-01</internalNodes>
          <leafValues>
            -1. 3.9841398596763611e-01</leafValues></_></weakClassifiers></_>
    <!-- stage 4 -->
    <_>
      <maxWeakCount>3</maxWeakCount>
      <stageThreshold>-1.2578113079071045e+00</stageThreshold>
      <weakClassifiers>
        <_>
          <internalNodes>
            0 -1 2 -3.6300022155046463e-02</internalNodes>
          <leafValues>
            5.8620691299438477e-01 -9.7995990514755249e-01</leafValues></_>
        <_>
          <internalNodes>
            0 -1 6 -1.7830303404480219e-03</internalNodes>
          <leafValues>
            6.6446822881698608e-01 -9.6135193109512329e-01</leafValues></_>
        <_>
          <internalNodes>
            0 -1 5 1.3233728706836700e-02</internalNodes>
          <leafValues>
            -1. 6.8350052833557129e-01</leafValues></_></weakClassifiers></_></stages>
  <features>
    <_>
      <rects>
        <_>
          0 0 16 41 -1.</_>
        <_>
          8 0 8 41 2.</_></rects>
      <tilted>0</tilted></_>
    <_>
      <rects>
        <_>
          0 20 30 16 -1.</_>
        <_>
          15 20 15 16 2.</_></rects>
      <tilted>0</tilted></_>
    <_>
      <rects>
        <_>
          0 27 14 4 -1.</_>
        <_>
          7 27 7 4 2.</_></rects>
      <tilted>0</tilted></_>
    <_>
      <rects>
        <_>
          1 0 14 6 -1.</_>
        <_>
          1 0 7 3 2.</_>
        <_>
          8 3 7 3 2.</_></rects>
      <tilted>0</tilted></_>
    <_>
      <rects>
        <_>
          7 27 20 8 -1.</_>
        <_>
          7 31 20 4 2.</_></rects>
      <tilted>0</tilted></_>
    <_>
      <rects>
        <_>
          8 11 18 9 -1.</_>
        <_>
          8 14 18 3 3.</_></rects>
      <tilted>0</tilted></_>
    <_>
      <rects>
        <_>
          12 32 6 2 -1.</_>
        <_>
          12 33 6 1 2.</_></rects>
      <tilted>0</tilted></_>
    <_>
      <rects>
        <_>
          12 41 17 4 -1.</_>
        <_>
          12 43 17 2 2.</_></rects>
      <tilted>0</tilted></_>
    <_>
      <rects>
        <_>
          14 31 24 3 -1.</_>
        <_>
          22 31 8 3 3.</_></rects>
      <tilted>0</tilted></_>
    <_>
      <rects>
        <_>
          18 26 14 20 -1.</_>
        <_>
          18 36 14 10 2.</_></rects>
      <tilted>0</tilted></_>
    <_>
      <rects>
        <_>
          28 4 10 30 -1.</_>
        <_>
          33 4 5 30 2.</_></rects>
      <tilted>0</tilted></_></features></cascade>
</opencv_storage>
